// Auto generated by utensor-cli

#include <stdint.h>

const int inline_dense_1_MatMul_eightbit_x_input__port__0_reshape_dims_0 [ 1 ] = {  -1,  };
#include <stdint.h>

const int inline_dense_1_MatMul_eightbit_x_input__port__0_reduction_dims_0 [ 1 ] = {  0,  };
#include <stdint.h>

const float inline_dense_1_kernel_0 [ 660 ] = {  0.31104964,  -0.1798698,  0.18378711,  0.26774088,  0.14414336,  0.12717558,  0.0790674,  0.10137048,  0.29715,  -0.054628383,  0.2669596,  0.097115606,  -0.057670947,  -0.32089758,  0.035674233,  0.13337864,  0.14106451,  -0.024454325,  -0.14980452,  0.056012906,  -0.08407862,  -0.0074390466,  0.12425159,  -0.25407413,  0.07585302,  -0.347305,  -0.004511307,  -0.07284817,  0.035635334,  0.0030223762,  -0.21978009,  0.006667904,  -0.13675812,  -0.10396161,  -0.3356628,  0.030876545,  0.07797052,  -0.017994564,  -0.046748184,  0.18907633,  0.02123351,  0.0016899491,  -0.08213015,  0.099819906,  0.053841107,  0.28415787,  -0.35718006,  0.005467748,  -0.20866428,  -0.0905912,  -0.070554286,  -0.04670247,  -0.36305583,  -0.14259298,  -0.065412305,  -0.094085366,  -0.015306875,  0.07768722,  0.078270994,  -0.10038932,  0.2324931,  -0.26573202,  -0.30096516,  -0.034563087,  0.037149876,  0.030758398,  -0.0056317137,  -0.03289034,  0.05694368,  -0.14612836,  -0.024355693,  -0.00044924184,  0.023237739,  -0.0073877075,  0.011563926,  0.17335644,  0.18951206,  -0.17526281,  0.0742135,  -0.28495356,  -0.21540622,  0.11955878,  -0.07071838,  -0.11855578,  0.018268473,  0.04917593,  -0.6257469,  0.02271823,  -0.037480127,  0.32117096,  -0.026048614,  0.17767474,  0.16318578,  -0.012020893,  0.023974957,  -0.040689543,  0.028250355,  0.07733452,  -0.07563364,  0.3138761,  -0.16739474,  -0.16604286,  -0.36519718,  -0.0024621743,  -0.06730097,  0.031478237,  -0.005885777,  -0.033790756,  0.0024604453,  -0.10696174,  0.017511066,  -0.00032153208,  0.08752945,  -0.014618656,  0.027488083,  -0.25959992,  -0.14184204,  -0.41672856,  -0.27169684,  0.009654776,  -0.033491302,  -0.20017852,  0.2153988,  -0.038440716,  -0.16479653,  -0.065392174,  -0.77008075,  0.061174557,  -0.028536864,  -0.03640175,  -0.20018221,  -0.11069144,  0.19343731,  -0.036219332,  -0.45479304,  -0.03771032,  -0.38582727,  -0.054018203,  -0.19360092,  0.0074793203,  -0.13306332,  0.1095381,  0.0037730813,  -0.057158336,  -0.08931911,  -0.35407358,  -0.35694513,  0.027032869,  -0.10336744,  -0.2519549,  -0.10925621,  -0.22762413,  0.33487025,  0.13996677,  0.11737175,  -0.20296188,  -0.00086360815,  0.001991907,  -0.19155173,  0.20762515,  -0.15634754,  0.044698503,  -0.040224273,  -0.30595732,  -0.1438124,  -0.48142955,  -0.57328975,  -0.013784257,  -0.034106784,  -0.06717655,  -0.16965131,  -0.56122804,  -0.12735632,  0.19625427,  0.085950084,  0.0056590815,  0.008167897,  -0.13401434,  -0.111130856,  -0.11454364,  -0.83505845,  -0.08651743,  -0.07518754,  -0.22973934,  -0.42697763,  -0.3213426,  0.072619446,  0.0004801765,  -0.55829763,  0.105865836,  -0.36014482,  -0.20507957,  0.24466702,  0.20117222,  0.29768667,  -0.53078437,  0.11542009,  0.20542212,  0.012759943,  0.16823399,  0.8556519,  -0.32837397,  0.22744519,  -0.5995347,  0.41310474,  -1.0127022,  -0.5005245,  -0.48832256,  1.2350581,  0.27832708,  -0.59870136,  -1.0423237,  0.28698397,  0.11773886,  -0.3385389,  0.46782276,  0.08553217,  0.09717269,  -0.5527606,  0.23091802,  -0.053015545,  -0.18807842,  -0.25947514,  0.020063084,  0.1375548,  -0.19433159,  -0.45251808,  -0.19394417,  0.12908797,  0.2056133,  0.20336969,  0.32500264,  0.13712184,  0.14571503,  -0.3465501,  -0.1524662,  -0.30392784,  -0.24266328,  0.17482099,  0.07859466,  -0.18949772,  -0.1305869,  -0.1233537,  -0.27765745,  -0.36826345,  -0.28434667,  -0.0026254891,  -0.06340269,  -0.059230696,  -0.26270095,  -0.18859102,  -0.01287396,  -0.032557845,  -0.003651169,  -0.101532415,  -0.10991895,  -0.25223166,  0.2360229,  0.061837908,  -0.15354761,  -0.26714364,  0.19774763,  0.20456834,  0.24293873,  -0.004670141,  0.082597755,  -0.5859584,  0.15838401,  -0.2990904,  -0.059487794,  -0.12280663,  0.10847304,  0.08542236,  0.198071,  -0.20747009,  -0.16429369,  0.10807194,  -0.1434389,  0.16125834,  0.041821674,  -0.008528513,  -0.21284941,  0.0410986,  -0.010838972,  0.0030826926,  0.09570019,  -0.009305677,  -0.004602597,  0.0018556343,  0.05579313,  -0.014762719,  -0.0017027268,  0.026317816,  -0.065035366,  -0.09676228,  0.037412316,  -0.14892553,  -0.12911363,  -0.1401152,  -0.01839968,  -0.070284285,  -0.26177895,  -0.15927187,  -0.010928759,  -0.09060888,  0.0914084,  -0.7113393,  0.087547906,  0.011928345,  -0.04190548,  -0.1900339,  -0.00093405537,  -0.2218039,  0.19533372,  -0.29170266,  0.14776401,  0.08216496,  -0.16474944,  -0.12846811,  -0.2899961,  -0.040544894,  -0.2636971,  0.1483298,  -0.025113055,  0.022209486,  0.004573469,  -0.002887391,  0.0024913629,  0.0085935015,  0.028812975,  -0.0066112885,  0.0022095628,  -0.03930711,  -0.045102753,  0.038222313,  -0.2541981,  -0.0990471,  -0.06130712,  -0.2724631,  0.08683313,  0.21836951,  0.00131097,  0.12720135,  0.10262636,  -0.111453965,  0.048210863,  -0.18314981,  -0.021425989,  -0.050388224,  -0.030913686,  -0.046880268,  -0.017180622,  0.10480007,  0.027115019,  -0.3079894,  0.060901318,  -0.41208765,  0.009614003,  0.22868092,  0.1413847,  -0.118968554,  0.20550118,  -0.17334509,  -0.07187804,  -0.13322751,  -0.06434758,  -0.5219964,  -0.0778071,  0.063726895,  0.013373235,  -0.07442839,  -0.33094886,  -0.116433375,  -0.1620608,  -0.38270432,  0.09564464,  0.060630623,  -0.24353094,  -0.09248382,  0.03987558,  -0.20295484,  0.056194622,  -0.14976268,  -0.15610796,  -0.36550617,  -0.4411136,  -0.32057384,  -0.21381016,  0.082081236,  -0.3270933,  -0.12903467,  -1.1174741,  0.1529576,  -0.5484545,  -0.15948944,  0.06724796,  -0.09683489,  0.06274727,  -0.40751362,  0.60279727,  0.5848568,  -0.33368462,  -0.04397516,  -0.7463839,  -0.70100313,  -0.4010439,  -0.5038316,  0.3822124,  -0.23315738,  0.16112763,  -0.10425723,  -1.5286918,  0.093226954,  0.13095593,  -0.2940905,  -0.48066404,  -0.09615763,  -0.19806871,  -0.3074177,  0.19482988,  0.32472363,  -0.01595603,  -0.25522086,  -0.507137,  0.24257427,  -0.32498354,  -0.21907504,  -1.2546104,  -0.14877723,  -0.31638503,  -0.67520994,  -1.0547147,  0.19517893,  -0.21801879,  -0.13056949,  -0.1490491,  -0.24175441,  -0.30935985,  -0.015122188,  0.0102122985,  -0.16337109,  -0.158907,  -0.25858647,  -0.12407815,  0.32287368,  0.020661388,  -0.14185093,  0.11456024,  0.025840487,  0.039518457,  0.0923532,  0.16904613,  0.15769488,  -0.2587458,  -0.07238929,  0.21620087,  -0.33012733,  -0.09088088,  0.07740047,  -0.4257367,  0.05408425,  -0.056660395,  -0.28665286,  -0.12522435,  0.09032614,  -0.2540594,  2.1246524e-06,  -0.044795036,  0.059748605,  -0.055961512,  -0.040227227,  0.010478192,  -0.2598105,  -0.040629365,  -0.06376663,  -0.18691011,  0.110191196,  -0.13019249,  0.07654934,  -0.34733713,  0.08688219,  -0.0033216598,  0.011801441,  0.35556546,  -0.1703007,  0.03841265,  0.2696463,  -0.08340188,  0.14618608,  -0.3018104,  -0.14116044,  -0.06679913,  0.12902385,  0.062139466,  -0.38372278,  0.046805944,  -0.22838499,  -0.2294246,  -0.13963959,  -0.56739694,  -0.0491384,  0.07964543,  -0.3027626,  -0.0015131113,  1.4137466e-05,  -0.06385586,  -8.474759e-06,  -0.038731977,  0.001305388,  -0.04167421,  -0.047070634,  -0.0019178162,  -0.04257511,  -0.017171787,  0.0332325,  0.01902959,  -0.06722853,  -0.2027361,  -0.111497514,  -0.26347515,  0.35570267,  -0.21955551,  0.026070636,  0.020285022,  0.11226475,  0.052454013,  0.012063157,  -0.08040676,  0.054505162,  -0.09060231,  -0.18216047,  -0.098952256,  -0.09396724,  -0.2168307,  -0.14566828,  -0.2688488,  -0.2065123,  -0.07073035,  -0.36450347,  0.1987481,  -0.10004417,  -0.26674062,  -0.07895969,  0.020900447,  -0.055033542,  -0.051287554,  -0.00023535683,  -0.011279113,  0.0022213303,  -0.2650165,  0.0014214768,  -0.0024264203,  -0.022127949,  -0.27025315,  0.05543916,  -0.16931182,  -0.4132479,  -0.079680495,  -0.32219085,  -0.0151053425,  -0.035254568,  -0.010646313,  0.06372413,  -0.027425505,  0.015741825,  0.02292336,  0.03639289,  0.0039601363,  -0.07832294,  -0.12714094,  -0.09134001,  0.13969006,  0.09371499,  -0.09786986,  -0.2044626,  0.1460104,  -0.20579013,  -0.028265223,  -0.17500277,  0.06720679,  -0.07905651,  -0.22671999,  0.08986195,  -0.37657273,  -0.32630894,  -0.099943385,  -0.42077082,  -0.04788857,  0.03736738,  -0.03663994,  -0.1365577,  0.18131751,  -0.20068529,  0.02955879,  -0.099805124,  -0.14035466,  -0.32346305,  -0.11906498,  -0.117154494,  0.59943783,  0.018731603,  -0.044574615,  -0.1685326,  -0.6133174,  -0.12885451,  -0.0021235337,  0.20096284,  -0.059429113,  -0.04331445,  -0.30126128,  0.010440448,  -0.5761895,  -0.28838208,  -0.38118967,  -0.1819304,  -0.27232084,  -0.34148246,  -0.022981869,  -0.1594275,  0.06294959,  -0.21819112,  0.279703,  0.15592279,  -0.5445383,  -0.27807724,  -0.7996417,  -0.15148261,  -0.28300986,  -0.11082932,  -0.027894273,  -0.19799066,  -0.9958975,  -0.4296637,  -0.16084956,  -0.11966227,  -0.4238163,  -0.18779698,  -0.07982336,  -0.23374793,  0.5608272,  -0.95953965,  -0.14634956,  -0.10568805,  -0.8335793,  -1.5043738,  -1.0098056,  0.059512846,  -0.07908878,  -0.24534474,  -0.30280584,  -0.13349095,  -1.2509246,  0.30878726,  0.25007093,  0.095308565,  -0.29714957,  -0.388317,  -0.43221724,  -0.1100816,  0.31661925,  };
#include <stdint.h>

const int inline_dense_1_MatMul_eightbit_dense_1_kernel_read__port__0_reshape_dims_0 [ 1 ] = {  -1,  };
#include <stdint.h>

const int inline_dense_1_MatMul_eightbit_dense_1_kernel_read__port__0_reduction_dims_0 [ 1 ] = {  0,  };
#include <stdint.h>

const float inline_dense_1_bias_0 [ 20 ] = {  -0.19830723,  -0.15929979,  -0.10226218,  -0.06061911,  -0.3793647,  0.023609178,  0.358456,  -0.05009853,  -0.31147146,  -0.01254247,  -0.20976079,  -0.008188689,  -0.24536803,  -0.07144149,  -0.1922385,  -0.27419105,  -0.15175587,  -0.01954238,  -0.13706985,  -0.26457855,  };
#include <stdint.h>

const int inline_dense_1_BiasAdd_eightbit_dense_1_bias_read__port__0_reshape_dims_0 [ 1 ] = {  -1,  };
#include <stdint.h>

const int inline_dense_1_BiasAdd_eightbit_dense_1_bias_read__port__0_reduction_dims_0 [ 1 ] = {  0,  };
#include <stdint.h>

const float inline_dense_2_kernel_0 [ 200 ] = {  -0.53923124,  0.9315791,  0.44561532,  0.71361196,  -1.1402031,  -0.25472113,  0.034897372,  -0.3726985,  0.21186869,  -0.957122,  0.27865285,  -0.20953837,  0.3938043,  -0.12974937,  0.13566597,  -0.7017431,  0.20625943,  -0.013468198,  -0.29400662,  -0.35770345,  -0.23973176,  0.27587202,  -0.27239424,  -0.17386061,  0.31958023,  -0.48575434,  0.030042557,  -0.23796166,  0.077591375,  0.36728862,  0.1537537,  -1.306157,  0.006195311,  -0.84323436,  1.4068469,  -0.44616845,  -0.36559772,  0.11102845,  -0.477732,  -0.68018734,  0.3128778,  0.789595,  -0.47986534,  -1.8690673,  0.5612341,  -0.21186763,  -0.61547124,  -0.7381432,  0.28576568,  -1.0836818,  0.30649197,  -1.0889621,  0.25250354,  0.2789823,  1.1078647,  0.2071174,  -0.4595794,  0.06867875,  -0.4720459,  -0.032096878,  -0.62392825,  -2.6058142,  -0.26642427,  -1.6869497,  -1.3859003,  -0.21633717,  3.6650138,  -0.33580148,  -0.21799868,  -2.4849916,  -0.33177197,  -1.9994125,  -0.9413762,  1.5694977,  -1.065172,  -0.25134006,  -0.54182327,  -0.1266829,  -0.59396833,  -1.0277691,  -0.1637978,  1.2680324,  -0.13199039,  -1.3406918,  -1.2969881,  -0.18871708,  -0.56444246,  0.011813393,  -0.2304692,  -1.2779167,  0.41295734,  -0.4318482,  0.40981722,  0.18375093,  0.06993915,  0.22456491,  0.029572606,  -0.35194194,  -0.33069196,  -0.17343631,  0.48962015,  0.026338667,  -0.096718766,  -0.10726562,  0.6420808,  0.35782662,  -0.6952753,  -0.31772488,  0.24734353,  -0.55837554,  -0.031930413,  -1.9618293,  -0.34456298,  -1.4878069,  -1.0774935,  0.100265086,  -0.4426063,  -0.15756765,  -0.08711204,  3.1812122,  0.06879549,  1.0293115,  -0.5731103,  -0.25797778,  -0.75107944,  -0.28644028,  -0.24034609,  -0.18860017,  -0.059316408,  -0.008886658,  -0.08585597,  -0.025725504,  -0.23003922,  -0.4074496,  -0.04640796,  -0.33870926,  0.04152911,  -0.082933925,  0.041567024,  0.8606633,  -0.42210263,  -0.4428447,  -0.023488589,  0.15689677,  0.4467902,  0.1287727,  0.28390688,  -0.08004471,  0.39853218,  0.13521683,  0.25208405,  0.3196181,  0.23215577,  -0.29372165,  0.21069576,  -0.178654,  -0.24256125,  -0.4433511,  0.19419798,  -0.186115,  0.3041406,  0.2040623,  -0.4088791,  0.29285106,  -0.33485866,  0.19834149,  -0.40190548,  0.12030819,  0.45653388,  0.062810205,  -0.35775483,  -0.3399301,  -0.5624545,  0.8271472,  0.12943679,  -0.56770766,  0.226196,  -0.2328557,  0.4235848,  -0.8004316,  -0.009163644,  -0.44125083,  0.083520226,  -0.021824403,  -0.064766854,  -0.24515077,  -0.28188592,  0.26617712,  -0.32031214,  0.10301225,  -0.54092765,  0.592327,  -0.41465324,  -0.29386735,  -1.0326624,  0.4506643,  0.09785009,  -0.2803228,  0.20336096,  -0.4813366,  };
#include <stdint.h>

const int inline_dense_2_MatMul_eightbit_dense_2_kernel_read__port__0_reshape_dims_0 [ 1 ] = {  -1,  };
#include <stdint.h>

const int inline_dense_2_MatMul_eightbit_dense_2_kernel_read__port__0_reduction_dims_0 [ 1 ] = {  0,  };
#include <stdint.h>

const float inline_dense_2_bias_0 [ 10 ] = {  -0.3035312,  0.68498284,  -0.17254812,  0.45151234,  0.3668767,  -0.32070616,  0.15531588,  -0.21030854,  -0.05914419,  0.34603554,  };
#include <stdint.h>

const int inline_dense_2_BiasAdd_eightbit_dense_2_bias_read__port__0_reshape_dims_0 [ 1 ] = {  -1,  };
#include <stdint.h>

const int inline_dense_2_BiasAdd_eightbit_dense_2_bias_read__port__0_reduction_dims_0 [ 1 ] = {  0,  };
#include <stdint.h>

const float inline_y_pred_kernel_0 [ 50 ] = {  0.89719915,  -1.236135,  -0.22040573,  0.27688673,  -0.9724785,  -3.2009854,  -4.02194,  -4.3046155,  4.025637,  -2.7445693,  -0.9520192,  -0.33552217,  -0.80385125,  0.93647325,  0.07207608,  -4.0299406,  -3.0958827,  -4.558023,  -2.5879922,  4.537449,  3.004177,  -1.1127096,  -2.1441784,  -1.4152015,  -0.9670212,  -0.83677167,  0.48160258,  -0.6362751,  0.21276712,  -0.0038250063,  -5.109801,  3.9251196,  -3.9719775,  -4.512488,  -4.6338735,  0.12443047,  -0.3911478,  0.13867326,  0.2959783,  0.124243684,  -0.91336995,  0.29091182,  -0.69315207,  0.79267544,  0.5647152,  -2.0722907,  -0.7857532,  2.9583085,  -1.3220887,  -1.8133093,  };
#include <stdint.h>

const int inline_y_pred_MatMul_eightbit_y_pred_kernel_read__port__0_reshape_dims_0 [ 1 ] = {  -1,  };
#include <stdint.h>

const int inline_y_pred_MatMul_eightbit_y_pred_kernel_read__port__0_reduction_dims_0 [ 1 ] = {  0,  };
#include <stdint.h>

const float inline_y_pred_bias_0 [ 5 ] = {  1.1308043,  -0.9855909,  0.70068747,  -0.36120644,  -0.7318647,  };
#include <stdint.h>

const int inline_y_pred_BiasAdd_eightbit_y_pred_bias_read__port__0_reshape_dims_0 [ 1 ] = {  -1,  };
#include <stdint.h>

const int inline_y_pred_BiasAdd_eightbit_y_pred_bias_read__port__0_reduction_dims_0 [ 1 ] = {  0,  };
